[[[0.16768126241675008], [4.202954997275015], [5.329850663710057], [-5.58344863184371], [1.796486072804897], [-4.33293073329177], [3.90922854961265], [-0.7126617946282581], [2.846286368672278], [-0.6825424454527287], [3.658030171085435], [1.3503969347305524], [-0.40931340515858006], [-1.6305113978837076], [3.3200330321903273], [-2.8734927409862383], [-0.2800393831713959], [-2.537540456498329], [2.7737110016120563], [7.826261388473139], [-1.2618222902031535], [-0.8235414624835022], [1.3298946771353277], [-3.7388338146790163], [8.197164644827414], [-2.2709386272071352], [-3.462104556793763], [-1.225353276361722], [0.1872741129299853], [8.719830866290373], [0.36748005141585116], [-5.590422688543916], [4.246822899879184], [0.9887243615125763], [4.55307903370277], [-0.795736442233824], [1.0484578356521839], [2.1519311898366573], [6.692253229807555], [0.8689457019632956], [6.329884547487997], [-1.0154190073017406], [2.4670317090039493], [-1.8265525461051255], [-6.248347791864371], [1.5510918741535527], [2.389994132667544], [5.807813318609707], [2.181158227438843], [5.593082078883164], [-7.534191797948472], [1.2650349796246445], [3.0589391536539376], [2.4796780250888752], [0.5653823722286035], [-3.76681967197183], [-6.5001636828798155], [1.1193807373364333], [-3.506025044353951], [-1.287380890187932], [6.115336538392534], [-1.1494822655832855], [-2.068620582121231], [1.6258342930566236], [2.208260769049167], [-2.3634292668112904], [-0.44698024200723774], [1.352596436197084], [-0.6989637196196226], [1.6493519810145538], [-9.9273650209527], [-3.5229242095385374], [-3.429653357167577], [4.287292908931681], [-1.3358020352198103], [0.9037443174972344], [-0.013039500373170476], [-1.5111403101462288], [3.916942130080781], [3.9251700001842993], [-0.1460417656259927], [2.001800300984372], [3.2041859304890474], [-0.9264759293795675], [1.341967131367804], [-3.086052162662258], [9.493421934087042], [5.663402334770895], [0.16748472312299967], [-5.407139870767086], [2.866940340844738], [0.8956631073043586], [-3.1170001201844193], [-1.5968561875286498], [-3.486671533219746], [2.1509293243471506], [-0.047484014910270655], [-6.0474223718277225], [-3.635459106202143], [0.9828313592899716], [-2.524958479842932], [-10.232897077216707], [2.293986540573398]], [[-1.5608841175687251, 4.000395505102982, -2.3907584991656607, -3.6412450449269387, -1.940022843018073, 6.463829921868681, 3.9855954608030135, 0.7135267000253482, -5.23558701013469, -4.246159314389875, 2.731754876729588, -1.2596475154745628, -2.2930918251187173, -0.40058299690460153, -0.373702462392667, -3.9071089662113043, -7.255283200023219, 4.167821749182139, 0.0985207162907824, 7.461801727441751, -4.454301203027095, 2.7099050273590226, 1.1273465572911197, 4.987921138818859, 1.1869919483648608, -1.9133970049286804, -4.110171314120711, 3.804898591393807, -0.8796695110479984, -2.4862460213887134, 2.1220441096855494, 2.047192000986946, 1.4536056933915726, 4.714708416104818, -4.753565528188959, -1.6265033636934025, 0.6869424021101329, 0.06847007544582784, -0.9533491344478979, -4.001049409257325, -4.411843816729087, 0.9338069059421947, 4.777398713661299, 10.96827584883442, 0.5505421932043624, -5.667414122364505, -2.3525512632037526, -1.0200432199624538, -2.5983221921531277, 3.2320900626665434, 0.49538627295956283, 1.9027648668455805, 4.052793544252091, 1.2511322220054546, 5.993032619831027, -4.729474949061878, -3.3421844981654143, 0.42045671996070855, 4.814869546971713, -4.170330498982064, 2.0342861270762467, -1.1143487690484424, -5.434304335816483, 4.161511782750283, -0.6132391828595019, -1.6647496926394991, -5.349861404199629, -5.087028374193551, 2.041669905364533, -1.6258628203473684, 3.2090063595207, -5.1334702352713935, -2.40302410254112, -3.428045534776334, 0.12236264781117123, 5.312230714352168, -1.6609633157935608, 2.917152190248687, -1.9679573391468126, 0.5618643606427289, -4.591789929167213, 1.9159954364215004, 2.99333467994926, -2.3410106529921024, 3.8109140761736033, 0.32018410417298826, 6.315041200684162, 1.7791717101873776, -7.977968630392836, -2.094514976216959, 0.8818054589562161, -3.9445738684170197, 2.3626228585060893, 2.688648606302928, 0.2632497822955222, 1.6691333440912715, -2.8029157830005813, 5.03993384290013, -0.7746896811124384, -4.047262744079186, 0.11081477965772679, -4.838455864436433, 0.6395198350923326], [-5.460336587746277, -4.872853451140458, -2.2575049317223854, -6.879960676884522, 5.434005685030771, 2.1406927270944496, 4.6147164863436005, -0.36585345658081314, 1.6128468959663786, -2.907399159444683, -0.6562977845166125, -2.316910209354139, 1.0653675641939975, -1.280030359926057, 0.6704636749407413, -0.06237136575418223, 3.2040624583062454, 7.234794836546046, -4.472027992130718, -1.18300880699084, -1.2041405406865633, -5.657296749525807, -0.4836187557667908, -0.284824345899207, 1.613463335002821, -0.37007005589059094, -4.7638653660419426, -3.2744382778096175, -4.274895612381799, 3.250129835441612, 1.0679469020697883, 5.932800121876305, -2.882554572363865, 3.036871212959039, -7.3745295806036415, -2.026559340044435, 6.373762350095016, -1.1581378413723655, 0.41907019329259176, -6.223183718089523, -4.608228675311931, -3.7642010884790493, 2.6703409147730848, 2.6888843033513976, -4.149640160615268, -0.7339291973966962, 4.809915325079979, -2.831079204449729, 2.035912927056504, -1.5490691339492582, -2.7687220011723026, 2.8296902087798594, -6.84619627514991, 6.264061993490461, 1.672156360782814, 2.178297344330831, -0.9913194780088541, 0.6514111011774224, -0.7959248987941816, -0.5475212573815558, 5.509301369453512, -5.141895667099638, -1.1251736660174259, 2.867027116418154, 7.062705019446323, 3.9978653785929326, 2.569340132289049, -3.910656959023622, 1.8368962337126042, -2.450296985745334, 0.19940540880076707, 1.4254317601298978, -5.131480449226734, 5.6159849145659, 0.7231848739241284, -1.1771218075974028, 0.22494934062457705, 3.8665095666583578, -1.3632617467498482, 4.099085922398044, -3.6666796930080263, -10.6825388400248, -2.6154602213122162, -1.907121271434756, -1.0316774175594992, -2.925382565648242, 4.961017755927534, -6.452550405076904, -1.4466921467194283, -3.2523837871196264, -3.156853203641898, 2.6512710012726846, 3.7514805858343125, -2.3812832546893667, 1.4338229039118229, -4.001648432455598, -1.3788390391396907, -3.2886583458933187, 0.299419183707728, -7.510924966537395, 2.626195872843196, 3.887643429376018, 4.0309914594523075], [3.6514492072333677, -1.6300452747552865, -5.62690233816522, -2.6724384541808193, -3.2227801284550606, -3.9764296499566423, -2.566119249581356, 1.7646135288967946, -7.2133965980565815, 4.474753633572032, 5.677726271429393, 3.736436451234955, 4.976311663611242, -2.253531423731944, 4.329669154970821, 2.144630468733318, -5.481176576085991, 2.3261463244826146, -2.921159510961111, -1.926386698128919, -1.8622976403000808, 0.36587175007721795, -1.6644889217106633, -4.832293407330106, -7.517715190866326, -1.206439962304073, -0.44646076804566404, -0.546027877875952, 1.8388674846589912, -3.221365627407513, 3.5137133438953336, -1.5740706463145804, -3.1056582070967536, -1.1113642947373887, 3.8572463483020023, -9.051983381330501, -2.2014512318543846, -0.09674154585312422, 3.566302781105899, -1.7485637278334831, 1.5888751780966155, -6.405037820119609, -3.3150702686445204, -1.642447875855864, -0.7265434165832021, 0.9720352445964049, -1.1839596522411902, 8.740066064741534, -2.1200764374294354, 3.355226474375356, 5.09557140668905, -2.0602812530949097, 1.1584719940815464, -4.334956248496741, -4.516712036854747, 1.3477084270570376, -0.0468986613822735, -1.8071689293389483, -0.23483708484178, -2.8923794034630963, 3.9251806880631794, -1.1447572985794014, 1.4621348395241718, 4.731802124303048, -2.0301197869175174, 4.918810758247728, 2.245281039415012, 2.629640743324964, 1.0658358992254282, 0.18502037781622072, 3.6523670393183165, -3.9962269347317148, 1.9334647679421777, -0.25176673960868845, 2.6588991184831543, -3.5010894029129216, 3.8435398522403967, -2.0997163806619947, -6.689042394811354, -0.15035111095793807, 3.2208168613467785, 5.513894940514799, 3.2541557482765664, -2.6966862518332366, 2.2882647098044027, 1.648187680400857, 3.163018750265201, -6.4274654050798645, 1.3975316385420764, -2.955984032126686, -0.6401600090119128, -5.541595178194527, 1.8393211252826696, -5.175643697187977, -5.346470117141223, -6.691346080538022, -3.3305469008231605, 3.781646460404296, -5.039010797157989, -2.8643442651727984, -2.8188637837884825, -5.405990165274243, -2.468495362162984], [-1.6722377159758222, 7.158917079019242, -12.095972189899047, 1.1362800834992344, -1.3831270540252998, -1.346210150284223, -8.429335057142382, 1.108707872071729, 1.7573425060393064, -2.183713588582125, -4.742103487635452, 3.1917543456966277, -11.252254551469255, 5.752350638792923, 5.490224951854055, -1.7601736112247672, 1.885467605420922, 0.5984201866404568, 0.7531111990600192, -2.305252643882556, -1.7033897346618656, -0.6777052963733343, 1.755139804365586, -1.8261871318729175, -2.16388659285438, -0.5892137684793042, 0.6397780441719298, 0.8840788335647596, 2.965786991835687, -5.3009244653619785, -3.7108495009490214, -0.014626000599474498, 5.794267675862306, -0.6165032311471785, -0.2957445644895751, 0.4326404187229933, -0.8253628227788163, 0.27587533277041354, 3.677851325603527, -3.4520623938738155, 1.8094884013791162, -6.185051496083528, -2.9464492615669413, -4.514918737101005, 2.5541540115988415, -6.8333273954178795, -4.528199041164981, -4.695383729729725, -4.039090767197351, -0.8213090007554995, -2.0831097934278158, 1.800027479044421, 1.3337484110830142, 2.8077599407241505, -0.7049755772510586, 7.224615569890355, -1.5073465552904466, -0.006968428555456985, -4.5882719097961076, 1.8705597638305855, -0.4031101806807742, -2.756203915576513, -4.032204580328879, -0.5201878367995376, 3.3141967737977693, -5.158769542361992, -2.3893853479279064, 1.7948741688329468, 0.41623211818455896, -1.837835732931084, -5.933165965094615, 5.848002085623367, 1.1995138971213177, 2.1696516658243956, 5.542859786468569, 4.747962347741311, -2.4414405738377476, -3.1356636313488564, 1.0387218849480337, -2.853329062448755, 8.475839520948627, 7.677873661308037, 3.8466030551584343, 2.0052694045426533, -4.745437592424491, 3.673512266796869, -5.473124372205408, -3.9601499700571816, 2.5182664825261103, 3.663012033451936, -4.280962390801374, -4.143428079256445, -3.8698003619714814, 0.2988785222311221, -2.510526801283677, -3.4706348609531563, -3.890495094955503, 4.534306172149092, -2.8783677520570072, -0.6360180276767124, -6.001428471020457, 6.435640854093196, 3.783035196671094], [3.300305051416285, 0.7120448490081781, -0.6611477030810002, 3.660339700949861, -0.043323704796765394, 1.8892671455475063, -3.042944835641298, -0.7540861257190485, 2.3341180180498293, 0.4823157727169156, 3.0020551086444787, 1.7770936684750525, -0.13597925799694144, -1.472777698765754, -0.5566149035308445, 3.3421160367754994, -1.1018634472745918, 0.42750778236995846, 3.2898650444979567, 2.1855952515141817, 2.9453582413796835, -5.9415770751990635, 1.0782366510342007, -1.6985242734516994, -8.030987924378616, -2.6369478987129833, -0.7066189374644272, 2.8315621177146353, 4.841803902957729, 2.067903545607173, 0.027781126277373946, -0.47741630577835137, -5.925540099559145, 0.377605498337521, 0.09130771681931682, 7.81563429540913, -2.6137204886381786, -0.1222829805974337, -3.8376846701288736, 1.7969385235075794, 1.2500011980851067, -1.2931257844273958, 1.2238198295750622, 1.9418195106159262, 1.0401349480392863, 2.1867913066241766, 5.382286907457682, -6.159748481724602, 3.9664629367869426, -3.0637118532601213, 2.929535355531539, 1.8266198971100387, 0.17733314317968052, -0.3872835948839004, -4.4294300375911035, -1.9833531296577585, -4.035144606147442, 0.060960480278607676, -2.586894493554384, 1.4305080824579917, -0.0807724033148629, 1.6044270354988597, 0.9135861272990455, -2.956723995623816, -6.678516910809044, -4.60718960189306, 3.0506895748628597, -3.70510046553078, 4.629578926229144, 1.1786425481972702, -3.0085109519206137, 0.553714706948599, -6.94566443960084, -2.5317725352984026, -1.115921516015439, 3.82113671233417, 1.0043094294599442, -5.474537118033953, 3.1136002626635815, -4.570053107934731, -4.270089153602736, 4.549826184760255, -5.7149952580186, 0.12487073714155317, 6.1610234004904365, -3.3215283682804064, 3.456854482456538, -2.1403608863359733, -0.05787401837956674, -0.7881144878615749, 0.9369378982515904, 0.3787504436258158, 3.814318851154032, -6.247963863120782, 1.9036543388440679, 1.3610489212532633, 0.7805956804698391, -1.0797721878434383, -8.52196880128923, -4.247322628823524, -0.42674339173073816, -0.18527606978846878, 2.286919426622447], [-0.4624079203380034, 2.849868223479479, 0.5321998543088222, -4.468200116287077, 2.302193425870087, 4.186473469920101, 3.4378505469826566, 4.3089743827462765, -8.704798100458643, -1.2723316668927684, -1.8048552750491353, -2.1187448073388206, 0.09354815204750633, -3.3572156546838765, 2.9541655018536357, -0.28316256902051196, 3.0168285609755836, -3.492673653014069, 2.754063689326027, 0.3611430383462353, 5.500722829894657, 1.507479551904797, -3.3840068247619097, 1.473845125113682, 0.3119655238719501, 0.7040665962416308, -7.117983020080883, -2.8060039919935793, 5.818105522670925, 1.0551720621304819, -4.269665089578669, 3.7673721597946157, -0.05457069793507374, 1.9375280621997297, -2.7874019176296496, 2.633089126178351, -1.2451624925740243, 1.5386287911152743, 0.011529716895192443, 4.4048484075672505, -0.01903326589362031, -3.563772929982875, -6.528216052992314, -5.251245388730224, 8.78443398872689, 7.789187592732529, 1.6337261923417743, -0.341772107416801, 6.235752918055995, 1.2997923178391582, -3.526220303110717, 0.6242974166249815, 2.319524483845805, 8.625990200966065, -3.0743407920727854, 2.539658034624151, 5.040737680897714, -4.831236387511573, 0.20395610594890812, 1.377000586269887, 5.618288694072595, 3.261154160648309, 3.420488083804164, 6.15345101439585, 6.904251181354148, 1.7071005461822302, -1.6166478629735197, 1.9009520082427467, -2.047632133324593, 3.618844214286178, -4.033630756382323, 1.5585250108966529, -0.1868751551036003, -2.669180152240837, -4.961495457786588, -3.4516931336304384, -5.956849076250433, 3.642962737940565, 2.5443981133691693, 6.471884996425403, 4.398275670161422, -4.243284083764472, -0.5978823313485093, -2.8121555303600436, 2.049198392147143, 1.9171103326572538, -3.639779862510761, -2.1054053540003497, 2.465460261584585, -2.64680305024905, 2.631556905077088, -1.9135959005675658, -3.829465655630978, 2.95795572720088, -2.838829971592459, -0.15347659963393978, -1.0566088179638515, -4.8139405038307554, 4.018184615653773, 1.7531743148653285, -6.068902962843524, 5.602281826876999, -2.9702825298618314]], [[-3.149817305205593, -2.7957129343953513, 5.896273144269273, 9.281446135162183, -3.2898744609797186, -2.076871917794563], [1.3124482432595421, -1.2216596577760384, -1.1206347794884652, -6.777297920390166, -5.85008489386478, 2.030276316829094], [-0.1870004018932656, 0.07675144144525925, 4.013291023719226, -5.1587127223930604, 5.05355414060175, -7.397520571705574]]]