[[[-0.9328734981378064], [2.9165655587283625], [-4.731619620284439], [0.7992903338842665], [2.3890858754603754], [3.8250943125361916], [-0.028218774615676345], [-3.309102799965127], [9.712815952336605], [1.3210944715226782], [-3.526895992602885], [4.50766927849596], [-0.6680025320990421], [3.125970155693444], [-2.5939865369254975]], [[4.798268355199518, -1.82566750528777, -1.9813141185362357, 1.9734142829141583, 9.644525790961975, -6.056203944488688, 2.92411674331222, 8.536792814668647, -2.5737245547150316, 0.8807053052766953, 1.0652696454119082, -1.7677597352305119, 0.586614489332018, 0.5729711037275402, 3.3820287349841545], [-1.0909289081288223, 2.7786442968759224, -1.8933487286106354, 6.519449715809335, 1.0810190990617397, -5.428536040143589, -4.967054009461139, -1.8485263673723726, 2.829711316301202, 0.3114102207603171, 0.14957553850660155, 5.447311264946977, 3.8656323385503657, 5.49747511482201, -2.9573450550404963], [-2.7966610849646907, 0.011594446087334287, -1.580070859056343, 2.92120613307579, -3.107865215826359, 1.3751204993355128, -1.128533255241031, -1.1973484456579713, 2.6294267062257, -2.427950735347053, -2.910898866318433, 1.7259016647783776, -1.0512139460322159, 5.284482952672045, 1.9223522296007358], [-0.9859939017502071, -2.931830025962339, 0.6962359504651112, 2.125998762865679, -2.6552906055013383, -4.016009445625437, -2.7274913089852997, 1.5778853603237768, 1.7889348466700077, -0.3051855731582922, 3.3407992283357975, 0.5247212341291654, 2.3483833957746874, -0.47961476752738896, -2.7076317668547767], [1.1962710700458916, 2.4000013622201823, -0.032251632152294096, 5.243328732233253, -0.06905130018237093, -1.4973743924344527, 3.8368877185564205, 0.5445865650278572, 0.41011380737540604, -3.848232831956967, -1.1823752845853543, 0.7699280833488831, 4.456229347240547, 2.866057841817335, -0.5605209659949097], [0.20696759611299775, 3.0875983897796897, -0.04271077497332865, 0.538413937905962, 1.4150578440829764, -0.6339207707996537, -0.845862745241571, -0.014478983048340055, 7.477521643302872, -2.064416198975065, 2.4956696032826633, -2.2411114261013907, -1.4292681687503608, 1.4842018700907738, 0.8296382330091139]], [[0.23067861940202983, 6.422390116180901, 5.310366076202056, -2.4205686693621487, 2.56339556365426, 3.336428077699663], [-4.818120889145906, -0.030756376031124244, 0.8137352069656143, -0.6593168201679576, -0.37468195023748274, 4.466304095542961], [-2.2081292972588416, -2.8552091765644643, -2.3148005594124923, 1.2090995141434093, -2.3136237369599377, -3.2576539366655655]]]