{88: 0.16748472312299967, 66: -0.44698024200723774, 25: -2.2709386272071352, 71: -3.5229242095385374, 94: -3.486671533219746, 35: -0.795736442233824, 73: 4.287292908931681, 31: -5.590422688543916, 53: 2.4796780250888752, 38: 6.692253229807555, 50: -7.534191797948472, 60: 6.115336538392534, 77: -1.5111403101462288, 87: 5.663402334770895, 91: 0.8956631073043586, 16: -0.2800393831713959, 40: 6.329884547487997, 17: -2.537540456498329, 58: -3.506025044353951, 82: 3.2041859304890474, 84: 1.341967131367804, 10: 3.658030171085435, 33: 0.9887243615125763, 41: -1.0154190073017406, 62: -2.068620582121231, 24: 8.197164644827414, 75: 0.9037443174972344, 81: 2.001800300984372, 90: 2.866940340844738, 74: -1.3358020352198103, 13: -1.6305113978837076, 67: 1.352596436197084, 9: -0.6825424454527287, 92: -3.1170001201844193, 64: 2.208260769049167, 70: -9.9273650209527, 0: 0.16768126241675008, 69: 1.6493519810145538, 80: -0.1460417656259927, 96: -0.047484014910270655, 55: -3.76681967197183, 99: 0.9828313592899716, 29: 8.719830866290373, 32: 4.246822899879184, 46: 2.389994132667544, 61: -1.1494822655832855, 83: -0.9264759293795675, 102: 2.293986540573398, 2: 5.329850663710057, 1: 4.202954997275015, 4: 1.796486072804897, 11: 1.3503969347305524, 54: 0.5653823722286035, 97: -6.0474223718277225, 47: 5.807813318609707, 14: 3.3200330321903273, 23: -3.7388338146790163, 76: -0.013039500373170476, 85: -3.086052162662258, 3: -5.58344863184371, 15: -2.8734927409862383, 19: 7.826261388473139, 8: 2.846286368672278, 27: -1.225353276361722, 30: 0.36748005141585116, 43: -1.8265525461051255, 95: 2.1509293243471506, 44: -6.248347791864371, 18: 2.7737110016120563, 6: 3.90922854961265, 48: 2.181158227438843, 21: -0.8235414624835022, 57: 1.1193807373364333, 72: -3.429653357167577, 101: -10.232897077216707, 63: 1.6258342930566236, 36: 1.0484578356521839, 52: 3.0589391536539376, 12: -0.40931340515858006, 59: -1.287380890187932, 89: -5.407139870767086, 5: -4.33293073329177, 22: 1.3298946771353277, 7: -0.7126617946282581, 26: -3.462104556793763, 68: -0.6989637196196226, 78: 3.916942130080781, 49: 5.593082078883164, 65: -2.3634292668112904, 37: 2.1519311898366573, 45: 1.5510918741535527, 56: -6.5001636828798155, 79: 3.9251700001842993, 93: -1.5968561875286498, 28: 0.1872741129299853, 42: 2.4670317090039493, 98: -3.635459106202143, 86: 9.493421934087042, 34: 4.55307903370277, 20: -1.2618222902031535, 39: 0.8689457019632956, 51: 1.2650349796246445, 100: -2.524958479842932}